-3.45837
2.05422
1.56786
-3.52009
-2.28564
1.03053
-0.877548
2.11161
4.82988
4.47135
1.33148
4.71141
-3.52951
1.80354
-3.37151
-0.779031
-1.36279
1.71703
2.32381
-3.44334
1.93624
0.752336
-3.47936
1.78216
-1.71735
1.83317
-1.48372
0.430808
-3.10228
-0.0983088
1.95396
0.665221
1.6193
0.10389
1.94437
5.05345
-3.21687
2.11122
-3.27477
1.52823
-0.564492
1.26423
-3.25704
-3.2632
1.61039
2.08193
2.07775
2.5797
3.43728
3.39343
2.03011
-3.21903
2.45974
1.79855
1.48609
2.30722
-3.21606
2.18944
2.45494
0.164694
3.44877
2.06306
2.41963
-2.19011
-3.26982
-3.20081
-2.60838
1.84369
0.246065
0.711692
0.623616
0.329676
-0.37978
-0.0822869
-6.45773
0.7099
0.786895
0.803053
0.578777
0.689792
-0.0671114
0.561052
0.483938
0.567684
0.494917
0.61179
0.185922
0.426951
0.143384
0.438312
0.477254
0.430162
0.491388
0.0543899
0.610335
0.159597
0.311375
0.332475
0.936417
0.364934
0.882861
0.23693
0.73148
0.579885
0.128865
0.484503
0.385941
0.532057
0.632357
0.704944
0.628321
1.06185
0.547318
0.530495
0.583055
0.410189
0.538549
-3.79728
1.01779
0.572058
0.611784
0.730206
0.0499688
0.705592
-0.0424383
0.637941
0.452279
0.691707
-0.0332036
0.621615
0.643142
-4.9965
0.921144
0.0564124
0.349196
0.861011
-7.10418
1.71196
0.34548
-2.34884
0.597495
0.904835
0.198059
0.346311
-0.23909
0.188661
0.26575
0.361802
0.745311
0.294431
0.0941791
0.292786
0.295261
0.140498
0.229826
1.33989
0.893768
1.10681
0.540956
-0.420324
-0.507565
-0.14344
0.0600196
0.715648
-0.679928
-2.26985
0.085215
0.18347
0.449281
0.25798
-0.0419371
0.091056
-0.120209
-0.595216
-0.145959
0.305942
1.2966
3.97937
0.324846
0.976511
0.417503
0.281982
-0.555347
-1.69432
6.66376
-4.76165
-0.33865
0.416741
0.663256
0.69029
0.414298
-0.111404
-0.348469
-0.212601
0.246747
0.620473
0.034424
0.561478
-0.668156
-0.103078
-0.700124
-1.87887
-0.120428
0.0110171
4.27384
5.90114
-2.71647
-2.42201
1.32812
0.823949
3.08915
4.06196
1.86456
1.51177
-3.28834
-4.10127
1.63172
1.00941
1.85852
0.390443
3.96246
5.28216
-1.60335
-2.48809
-2.54656
-1.2263
-2.81823
1.39231
-3.08201
0.274208
1.82662
1.71396
2.64992
2.75206
0.460832
-0.208807
0.00415148
0.0428588
-4.86231
-5.05086
1.35926
-3.2911
-1.86738
-2.46683
0.896556
0.790334
-1.00037
-1.48398
2.00053
2.15254
1.83297
1.31123
2.3882
2.87007
2.47127
2.05617
1.26926
-0.318878
-2.90978
-3.50883
1.30299
1.01275
-2.04496
-2.91026
3.91988
5.22487
1.96998
2.26638
1.66494
1.22521
-1.48361
-1.66314
1.07808
0.966084
0.52161
1.35408
0.680309
1.1193
-2.19263
-0.221382
-2.07377
-0.243725
0.684209
0.454091
0.0889414
-0.977559
-1.62806
-0.553185
0.480365
-1.35071
0.531756
-0.139677
0.628424
0.499862
0.495134
-0.720853
0.0213945
-0.976812
0.225455
-1.1315
0.706405
-1.59988
1.02965
2.51127
-3.42792
1.0018
0.189793
-0.163466
0.374485
-0.0508175
0.848554
0.398963
1.16673
1.18181
0.233599
0.244404
-1.17897
-0.571269
1.06343
0.548205
0.494694
0.317344
0.943009
0.398894
1.14559
1.37079
0.422217
0.667188
0.742517
1.05442
0.43527
-1.23949
1.13993
1.85563
1.11099
1.64097
1.2014
1.98997
1.13376
1.05255
-1.22402
-2.01601
0.869266
1.06921
-2.41767
-2.92587
-1.13164
-1.69529
2.81139
2.60745
2.91551
2.75948
0.674746
1.04364
0.875934
1.665
-1.48611
-2.4258
-0.486216
0.604088
-0.746409
-1.55249
1.59798
1.01239
-1.40548
-1.31489
-3.27615
-3.05916
0.719766
1.03366
1.3447
0.654943
4.32774
4.84773
1.1558
1.24647
1.06886
1.57245
0.709639
1.57624
-0.430821
-0.356599
0.937393
1.16482
-0.935818
-0.311267
-2.00949
-1.9198
3.81363
3.55673
-0.590832
-0.504885
-1.55762
-1.46803
1.15259
1.5842
-1.69594
-2.24935
2.26285
1.65585
-0.454556
-0.515697
-1.46452
-1.95912
2.53149
1.98571
1.26681
1.48171
6.38866
4.9623
-1.29872
2.93184
-3.85647
-4.17105
-0.823747
0.562967
4.10796
3.87266
2.13715
2.34127
-0.250494
-2.46798
1.15339
1.44709
1.90063
3.5823
2.97142
2.88158
-3.81164
-4.12609
-0.42285
2.69151
-0.166744
-3.2315
-6.61537
-5.93732
-0.882771
2.66392
2.5597
1.74874
1.83069
2.10434
-0.387891
1.95649
-1.94343
-4.22407
3.01593
2.49762
-1.04086
-2.30657
0.955203
2.26857
2.74394
3.06919
-0.389917
-0.149755
-1.85931
-3.00662
-1.49345
-2.77907
-0.520978
1.43861
-3.43573
-4.09291
-0.373364
-0.751103
0.408187
2.44598
5.94303
4.2394
-2.13745
-3.70099
-0.669052
1.04256
4.11209
3.34618
-0.1169
0.947676
0.388548
0.904207
-0.538174
-0.959785
0.616892
1.02165
0.385839
0.142521
-0.465944
-0.0621049
-0.224164
-0.408833
1.33247
1.56311
1.33735
1.23087
-0.283898
-0.666372
-0.584936
-1.03845
-1.01196
-0.80751
0.411413
0.723957
1.41537
1.56521
0.933668
1.28837
-0.095678
-0.224769
-1.87512
-3.14401
-0.265506
0.498486
0.90718
0.898874
1.00057
0.736265
0.560462
0.0805871
0.293047
0.123289
0.670581
0.484297
0.609764
0.735799
-0.665315
-0.194597
1.08916
0.384363
1.74704
1.47288
-0.491347
-0.556706
-1.33718
-2.42443
1.03811
0.890765
0.0439798
0.772982
1.03109
0.941151
1.12855
0.530086
-0.52072
0.804183
-0.284869
0.295006
-0.0181642
-0.180633
0.0554889
0.240151
0.333222
0.642836
0.0350335
0.289581
0.168862
-0.423123
0.145298
0.488495
0.0881805
-0.867849
-0.110324
0.8169
0.369611
-0.169479
-0.158171
0.437849
0.473184
-0.224702
0.411415
0.311487
0.172617
0.267278
0.626384
-2.26544
0.716051
0.394
0.0238076
0.515644
2.33829
3.53672
2.51338
3.12828
2.85345
-2.7921
1.46809
-3.81765
1.13923
-0.775074
0.321632
-0.0481908
-2.28965
3.20474
0.421161
-0.229601
-0.768059
-1.28718
-2.27968
-0.0727723
-3.4113
-3.25037
0.312897
-1.7946
3.73989
-1.63754
1.39457
0.337291
1.57025
1.607
-3.2045
3.38111
1.35246
3.6573
0.672827
0.391809
0.380532
0.245221
-1.43859
-1.53012
1.33343
0.956917
0.450827
0.0401954
-2.35808
-1.36699
0.473533
0.561424
0.292378
-2.02113
-1.18464
0.196465
0.509916
0.377866
0.752995
0.432233
0.948335
0.414283
0.559814
0.147868
1.5767
2.17856
0.993623
0.700259
-0.563546
-1.39585
1.20993
0.570134
0.658397
0.363866
-2.92983
2.35867
0.806409
0.947918
0.0378095
-0.359236
0.55338
0.342565
0.521739
0.0352277
0.664376
0.592004
-0.613296
-0.103197
0.541773
0.485271
-0.727512
0.105697
-0.3308
-1.81517
1.04514
0.533547
-0.198048
0.0655077
0.340222
0.561131
-1.97821
-1.43265
-0.733232
-0.788471
1.02463
0.721517
2.70067
-1.15611
3.23137
0.350686
3.34286
-3.64104
0.731227
1.43603
-0.337797
4.17834
-3.60709
0.123742
1.2472
3.71741
-2.81365
3.58947
2.51402
-1.32406
-1.70646
0.741553
2.21764
-1.65598
1.81787
2.92207
1.73704
-0.714167
-3.69076
-3.25202
1.22525
2.59228
1.93793
0.247814
0.428835
-0.396464
1.72208
2.28101
0.556059
0.803952
0.423778
-1.18882
-0.000790307
-3.92316
3.05823
0.746538
-2.55759
-3.02424
-2.91836
0.152847
0.333515
2.87814
-0.897673
-0.844204
1.24718
3.63856
0.77581
-0.211759
-2.35023
0.247219
2.58637
2.88522
2.08518
1.82245
2.06466
1.84821
-0.45176
3.43943
-2.40034
-2.34015
1.02435
4.25611
0.109842
1.20245
-2.73602
-2.6007
-1.55291
-1.74155
0.155448
1.17665
0.334284
0.518429
-0.0766988
-2.41033
-0.0648668
-2.40037
0.354254
-3.1446
0.400713
0.849747
-0.686707
-1.21319
0.537659
0.936899
1.17944
0.0414771
-1.30935
1.88277
0.507526
0.243369
-1.36275
1.8932
-0.93522
-1.58851
0.184404
-2.77701
0.374636
1.02452
0.514989
0.483746
1.36631
-0.189995
0.731544
2.35652
1.02102
3.09709
0.58965
-3.7043
1.07083
0.719034
0.626434
0.507719
0.270063
-0.237801
1.06237
2.86843
1.15957
0.139343
0.328386
1.01747
0.22471
0.947806
0.634454
-0.10251
0.334958
1.27967
0.886645
0.535915
0.375501
-0.141843
-0.0715169
0.627482
1.2836
0.933704
0.946426
0.912164
0.826326
0.455599
0.850665
0.775385
0.505402
-0.62603
0.4921
-0.571036
0.615267
0.154936
-0.0283902
0.10911
0.847572
0.0134274
-0.847248
0.458244
0.814645
0.313281
0.320655
0.431812
0.815062
0.640293
-0.105052
0.0926101
0.611904
-0.275726
-0.940297
0.115495
0.611619
0.322024
-0.0347429
0.388411
1.64625
0.0518535
0.123774
0.393639
0.581313
-0.321099
-1.06088
0.131822
0.0463734
-0.221474
0.180595
0.63158
1.46429
0.547987
0.608915
0.88878
0.889385
0.248714
0.464469
0.018619
0.326418
0.0221696
0.754613
0.209835
-1.25208
0.866693
0.114923
0.476669
0.258979
0.960049
0.53998
0.998473
0.493248
0.519168
0.357369
0.33949
0.920921
0.216667
0.157627
0.82378
0.854544
0.146407
0.962806
0.367842
0.365853
0.441623
0.193522
-0.454626
-1.02812
0.796846
0.701626
0.115976
0.526468
0.98054
0.945309
0.323365
0.51538
0.342264
0.260296
0.152446
1.53583
0.220003
0.868005
0.0681434
-0.0437956
-0.226148
-1.13035
-0.000594161
0.37984
0.451263
0.900562
0.0233173
0.977103
0.90886
0.12429
0.698416
-0.0250915
0.656846
2.15184
0.931696
0.849389
0.0258737
-0.0395622
0.85535
0.69653
0.321764
0.247715
0.0621664
-0.0251561
0.622158
1.47201
0.299473
0.396892
0.493298
0.886543
0.743014
0.849947
0.676296
-0.0158642
0.113277
-0.11559
0.516507
0.417071
0.938147
0.824303
0.482213
0.505679
0.0219387
1.60954
0.831687
0.300642
0.464659
0.184006
0.0192368
1.00538
0.649405
0.371812
0.0598557
0.746697
0.679253
0.935242
0.655015
0.487201
0.43746
0.628718
-0.00673799
1.19544
0.933279
0.572276
0.0440568
0.286716
0.428516
1.36679
0.571834
0.324529
0.696845
-0.0286887
0.0492888
-0.726185
0.25201
0.204273
0.084881
-0.0259277
0.0989706
-0.916962
0.104275
0.147328
0.47955
0.635239
0.3202
-1.1831
0.788945
0.478627
0.464118
0.277223
0.383171
1.63831
0.0638687
0.0734368
0.219719
0.094079
0.480043
0.918422
0.130695
2.45451
-1.47694
-1.82237
0.594549
1.16595
-2.46893
-0.419161
0.74703
2.3301
-1.30055
0.632616
-3.0576
2.85748
-0.992044
2.83215
-1.11205
1.35779
0.731978
1.68616
0.718065
-2.13993
0.622337
1.23062
-2.26994
1.21031
0.680259
0.978139
0.818715
-2.03913
0.612094
0.781302
0.0102187
-0.0386143
0.85855
-0.911218
0.883134
0.505389
0.626268
-2.24182
0.859994
2.30476
-1.02983
-2.10541
0.680362
-2.04373
0.526334
0.478363
0.108631
0.787329
0.546563
0.101419
0.841569
1.78267
-0.996951
0.195896
0.316232
-1.59036
0.671352
1.33214
1.07839
-5.34188
3.92603
1.34833
-0.530344
-0.192309
0.640921
0.945176
0.513423
0.458337
-0.775043
1.0035
0.735418
0.037671
0.414696
-1.27895
0.640922
0.913965
0.843621
-0.307071
0.257653
0.678764
-0.349703
0.685243
0.406305
-0.0941183
-0.361819
0.733713
0.826198
-0.730502
-0.384387
-0.364803
-1.13978
-0.314227
-0.351117
0.350506
-0.385019
0.40552
0.253666
0.00672801
0.459544
-1.12621
0.0659815
-2.01746
-1.30219
-0.631631
-0.610146
-2.31343
-1.6953
-1.96763
1.4639
1.74555
1.42481
2.98026
0.570324
0.92046
1.5981
0.484203
1.16822
-1.54959
0.53848
-0.519768
-1.8636
0.832421
0.94569
2.42447
-1.36036
1.19175
-0.0781394
0.65539
2.11059
2.19165
-2.14161
-1.33492
1.18577
-2.06962
-0.596508
0.0763718
0.386948
0.13856
-0.469386
-0.506795
0.269597
0.260754
0.112959
0.226146
-0.0513004
-0.342913
0.385068
-0.213897
0.0959293
0.409056
-0.0558587
-0.219411
-0.0225739
0.662903
-0.251782
-0.0682264
0.464584
-0.0882916
-0.401843
-0.124389
0.339026
-0.128008
-0.148726
-0.337532
-0.535429
-0.465007
0.474059
0.0836799
-0.681453
0.157177
0.0940255
0.0827672
-0.503912
0.236754
0.00878764
-0.192213
0.0268094
0.307153
-0.241694
0.182453
0.196157
-0.3991
-0.394305
0.574273
0.487827
-0.0219545
0.313902
-0.118763
-0.566376
-0.409102
-0.402385
-0.0713194
-0.0233831
-0.292444
-0.0942594
0.0376605
-0.560986
-0.290316
-0.25947
0.529472
-0.860626
0.462637
0.346383
0.0330756
0.206636
0.327197
-0.0335479
0.0490555
-0.0207446
0.0639809
0.523992
-0.00249193
0.0890206
0.0598174
0.949126
-0.125554
0.588506
0.428316
0.406915
0.560272
0.756988
0.896757
0.391772
-0.0410447
-0.681681
0.772486
-0.275666
0.320904
0.11356
-0.532602
-0.0098297
0.105367
0.58215
0.648195
-0.0766645
0.217249
0.355642
-1.15199
2.66515
2.20686
-2.98789
1.28589
-2.2917
-2.08437
-4.26772
-2.45766
-1.36598
2.95309
-1.64616
1.17383
0.870401
1.68324
2.61666
-1.21068
-0.181463
-1.05292
-1.89211
3.77727
0.435566
1.7235
2.63546
1.49316
-2.14046
-1.84037
1.20362
3.6344
-2.20718
-1.09135
-4.31758
4.65844
-5.80855
0.162296
0.204021
-0.24545
-0.299193
0.356537
-0.339494
-0.158968
0.0353441
-0.109167
-0.212804
0.378854
-0.0303787
0.266923
0.309318
-0.102595
0.742811
-0.565712
0.112108
0.143284
0.0409388
-0.0581828
-0.238066
0.482671
-0.0573208
0.197154
0.0988118
-0.0469586
0.247749
-0.107671
0.27645
-0.152375
-0.366672
-0.0712367
0.371452
-0.678147
-0.303844
-0.00578094
-0.418314
0.0276703
0.201395
-0.364409
-0.727705
0.0528363
0.134668
0.0319354
0.629547
0.551668
0.628854
0.386149
0.498665
-0.240376
0.0724811
-0.891699
-0.449313
-0.817467
-0.632172
0.147571
-0.143523
-0.300931
0.221521
-0.685037
0.361572
-0.285119
0.191766
-0.149344
0.556665
0.248465
-0.0223784
-1.57937
0.235078
0.750247
0.328009
-0.367634
0.267254
-1.12094
-0.3712
0.824516
0.407314
-0.663289
-0.162558
-0.684235
0.279533
0.966478
0.394588
1.29315
-0.0826615
0.359182
-0.0137351
1.05643
-0.503752
0.831914
0.55433
2.32437
-0.669975
1.91214
-0.546399
0.375958
0.5984
-1.79672
-0.441749
0.159912
-0.151258
-1.65975
-0.762828
1.48614
0.329904
0.95454
0.695523
-1.56966
-1.10159
1.17047
0.39979
-3.70804
-0.33303
-3.88825
-0.227192
-1.2649
0.178713
1.42009
0.221802
1.89743
-0.358253
1.97531
-0.46228
1.83163
0.167082
-1.93064
-0.91488
1.9841
0.389811
1.16507
0.552825
-1.45249
-1.74997
-1.70016
-0.463157
0.561176
0.27723
0.794476
-0.226563
-0.573104
-0.36004
-1.52564
-0.442023
-4.68034
0.249915
1.08807
0.719882
3.39277
-4.17506
-0.527806
0.506049
-0.231754
-0.196916
-0.611696
0.704321
-1.55436
-0.31774
-1.15997
0.558907
-1.24964
0.37919
0.448751
0.797028
-0.912266
-0.213423
1.48725
0.7936
3.23084
2.99777
0.588406
-0.729193
-0.257466
-0.472094
1.54934
0.119199
1.29098
1.34884
2.01791
0.803201
-0.0653137
2.3999
1.35262
2.6862
-3.73866
-0.297059
-0.0633896
0.431375
-0.468304
-0.263061
-0.0824211
-0.642485
-0.157783
-1.60126
0.986551
-0.4211
0.686906
0.978069
0.542225
1.25622
0.177123
1.16252
1.34336
1.91767
1.58987
-0.179927
-1.12528
-0.23534
-3.4531
0.835098
0.170035
-0.726351
-0.13753
-1.19954
-0.0701844
-0.711408
-0.607049
0.0185155
-2.77775
0.742179
-0.80718
-0.367775
0.646122
0.809429
1.09455
-0.667429
-0.520096
-1.15657
1.13293
-2.49986
-0.768395
-1.15062
-1.08695
-0.891963
-1.2949
0.234137
0.907078
0.910535
1.11028
-1.53016
-0.395029
-0.682599
-0.711318
-0.870254
-0.83512
-0.40502
-0.532012
-0.603516
-0.87712
0.950677
-0.827804
-0.33291
-0.768418
-1.07757
-0.618856
-0.725709
0.103161
0.543303
-0.104106
-0.336462
0.0104982
-0.528236
-0.704197
-1.1776
0.542461
-0.342191
1.16222
1.61893
1.60382
1.77791
0.896117
0.766474
0.371015
0.301236
1.43012
0.861211
0.627984
0.670261
-0.747256
-0.143984
0.424004
1.65435
0.495404
1.2446
-0.894306
-0.295006
-0.133435
0.0430521
-0.685808
0.758654
0.91526
0.983236
-0.000383949
0.67339
1.05776
-0.162427
-0.87129
-0.928483
-1.08761
-0.906349
-0.674646
0.378908
-0.160481
0.463194
-0.133888
-0.0894862
-0.0284179
-1.16747
-0.986982
0.557301
0.387725
0.0704101
-0.387243
-0.941992
-0.911218
-0.404021
-1.57767
-1.57738
1.22776
0.766455
0.663204
-0.353338
-1.01307
-1.41366
-0.11117
-3.18661
-1.61513
-0.769009
-1.9396
0.2824
0.188524
-1.30235
-0.670963
1.19251
1.50759
0.77822
0.135918
0.441112
0.356311
-0.100562
-1.17486
0.285168
10.8084
14.2273
32.239
0.613269
1.11578
0.802361
0.0673081
-0.127603
-2.52974
0.0694193
0.799331
0.726254
0.345025
-1.35022
-1.38806
-0.126714
-1.1188
-0.137619
-3.34788
-1.55258
-1.42334
0.337474
-1.00514
-1.10062
-0.150027
-1.67147
-3.23873
5.70777
7.98822
17.5121
-0.459026
-0.484009
0.528617
3.2275
0.04168
-0.822768
-0.808628
1.46227
-0.635054
-1.36833
-2.03732
-1.14541
-0.518492
1.37212
1.54334
0.578788
0.828499
-0.434217
-3.22584
-2.87903
-3.25347
-0.37953
-1.52168
-2.58956
0.464824
1.54379
0.521213
0.900101
2.45255
1.50853
1.51062
0.26193
-0.594169
-1.67993
1.67602
2.32134
5.5283
0.335232
0.75669
0.685424
0.521889
0.504088
-0.443447
-0.44824
0.71218
0.892733
-1.21037
-2.03746
-0.438969
-1.12763
-6.84082
-1.10112
-0.498654
-1.07372
-2.52638
0.677667
0.336732
0.501591
0.69867
0.268188
0.15483
0.799944
-0.428238
0.609416
2.14103
4.62115
2.39453
-0.880597
-1.47532
-1.49797
0.55563
0.593801
-1.04833
1.01329
1.73674
0.16254
0.71073
0.638935
-1.30274
-0.248172
-0.464755
0.731963
0.591251
0.146484
-0.596958
-0.444137
0.756523
0.691736
-0.0431483
-0.702416
-0.403111
0.126357
-0.496589
0.236228
-0.0516475
-2.95369
-0.0219324
0.758194
0.0859433
1.00524
-0.281253
0.446785
0.805642
0.0241894
0.28782
-0.0555597
0.340202
0.312862
0.498142
0.141501
0.401592
0.595412
0.425301
0.570785
0.323559
1.27538
0.368201
0.254428
0.28988
-1.01762
-1.72939
0.308868
0.473049
0.373147
0.735653
-0.0670435
0.467753
0.250964
0.137607
0.391524
0.2373
0.592161
0.208708
0.393765
-2.5177
0.302622
0.156134
-0.782718
0.126782
0.537401
3.32332
0.742126
0.356498
-0.591989
0.247738
0.374827
-0.666885
0.223496
0.255998
0.495224
0.408212
0.118921
0.544609
-1.75036
-3.043
0.270934
-1.60386
0.902274
0.376001
0.238995
0.402755
1.03371
0.667901
0.379806
0.491147
0.382803
0.608652
0.387775
0.474102
0.468691
0.202319
0.741938
-0.749031
-1.08366
0.696386
0.598613
1.06674
0.0158177
1.16979
0.794005
1.02217
-0.0120021
0.0421144
-0.158845
-0.848689
1.6633
0.724828
0.425996
-2.07883
-0.395379
1.12757
-0.102969
0.987229
0.14004
0.441218
-0.322181
-1.07244
2.04688
0.0811594
0.641388
-1.52258
-0.777724
0.196623
0.56507
0.520215
0.488473
0.895692
0.12661
-0.104977
-0.0871576
0.956795
1.43068
2.54291
2.97599
0.395295
0.453744
0.750682
0.213143
-0.759
1.50295
-0.616462
-0.874919
0.942195
0.0836545
1.62099
-1.10007
1.14377
-0.142832
-0.169126
-0.0497113
-0.366294
-0.312095
0.303784
-2.80383
-0.219038
-0.00867296
1.11222
-0.11047
0.903555
0.117509
1.2781
2.07048
0.0649928
0.795696
2.40769
2.2098
5.2371
1.89219
-1.52267
2.63429
0.638332
0.127836
-2.58468
0.1892
-0.995257
1.70041
-0.943972
1.6052
-2.47008
0.298752
1.51578
-1.01307
-2.63324
-1.81102
1.70808
-2.23178
-0.201312
-1.74067
0.860229
2.17917
-0.0243309
-1.84679
-0.848574
-1.18084
0.207418
0.525867
0.038228
-2.04363
0.367922
0.387836
-0.0790446
-0.179929
0.859853
-0.153934
0.966468
-0.558607
-0.471621
0.690139
-0.885498
-0.88282
-0.0362086
-0.208633
-1.53253
-0.607669
-3.16364
-0.371694
0.495061
0.328226
1.39156
-0.889282
-0.383219
-1.59817
-5.22741
-2.00472
-0.403012
0.00213145
-0.564362
-0.914565
-1.12423
-1.12887
0.964732
1.6427
0.246112
-1.89992
-0.586073
1.1137
-0.615788
-1.28833
1.12674
1.04563
1.27927
-0.375541
1.29193
0.0559867
-0.864016
0.896386
0.110013
-1.7289
0.154233
1.16546
0.241427
0.458015
0.0787834
0.54429
0.365119
0.69569
0.610925
-2.18716
0.635006
1.07512
-2.07855
0.273821
0.774485
-0.809101
-1.18273
-0.937574
-0.916965
1.58669
-0.395376
-1.40049
0.238914
0.429601
-1.37682
2.34359
1.24427
1.61372
2.24435
0.689636
0.61001
1.75813
0.954934
0.61392
-0.645806
-0.651786
-1.95671
0.919751
-0.566694
-0.750855
-2.29362
0.102921
0.976449
-0.180087
2.19233
-1.58361
1.84685
-1.03255
